{"layers":[{"utilizationRate":{},"age":{},"thirtyDaysLate":{},"monthlyIncome":{},"openCreditLines":{},"ninetyDaysLate":{},"realEstateLines":{},"sixtyDaysLate":{},"numDependents":{}},{"0":{"bias":-0.468181892961221,"weights":{"utilizationRate":-0.931286461479917,"age":-0.9812585885130549,"thirtyDaysLate":-4.316507124574165,"monthlyIncome":0.878858205118966,"openCreditLines":-2.1889299447678026,"ninetyDaysLate":-2.371464817821297,"realEstateLines":-0.9827739611320587,"sixtyDaysLate":-0.9867008426602031,"numDependents":-1.354185522446169}},"1":{"bias":-0.36929212519259436,"weights":{"utilizationRate":-0.7660349189615094,"age":-1.2153401861402717,"thirtyDaysLate":-4.905965488322706,"monthlyIncome":0.8733964749794637,"openCreditLines":-2.348062408662326,"ninetyDaysLate":-2.3254628786924028,"realEstateLines":-1.1000004723756107,"sixtyDaysLate":-1.4112357356785568,"numDependents":-1.5160787448969208}},"2":{"bias":0.3717456263929432,"weights":{"utilizationRate":-21.174002089223983,"age":-0.5216606838001207,"thirtyDaysLate":19.72104392195209,"monthlyIncome":1.6284880360310607,"openCreditLines":-3.9324652901184542,"ninetyDaysLate":4.945211312374054,"realEstateLines":-3.4276070511528802,"sixtyDaysLate":4.246076113612255,"numDependents":0.6856685685461331}},"3":{"bias":-1.94389990285553,"weights":{"utilizationRate":2.812648890944506,"age":1.016041752520539,"thirtyDaysLate":8.199539949960919,"monthlyIncome":-2.390673550161126,"openCreditLines":-4.131719951124926,"ninetyDaysLate":6.032352031853479,"realEstateLines":0.527382288398678,"sixtyDaysLate":4.241084239304346,"numDependents":1.0704273801513573}},"4":{"bias":0.5970411841511735,"weights":{"utilizationRate":-2.0469319527930354,"age":1.0456424390193249,"thirtyDaysLate":-32.4277664688406,"monthlyIncome":1.9341772258987888,"openCreditLines":-2.8030998202199724,"ninetyDaysLate":-9.455331597171478,"realEstateLines":-2.888952203652997,"sixtyDaysLate":-8.080030947571887,"numDependents":-0.2182978079338711}},"5":{"bias":-1.9149826956976579,"weights":{"utilizationRate":0.4878142383875217,"age":-0.9332159510638813,"thirtyDaysLate":1.9186207679961857,"monthlyIncome":-0.410960329910001,"openCreditLines":-0.8077991563051685,"ninetyDaysLate":1.4132303772184778,"realEstateLines":0.31463736803944464,"sixtyDaysLate":0.6561325860952855,"numDependents":0.640493452697732}},"6":{"bias":-1.7766017029483756,"weights":{"utilizationRate":1.9410047169405966,"age":-0.33629984569950994,"thirtyDaysLate":6.045219574335719,"monthlyIncome":-1.5678396604222533,"openCreditLines":-1.6542323615558192,"ninetyDaysLate":4.498433006526207,"realEstateLines":0.6824985336512595,"sixtyDaysLate":2.478255891251691,"numDependents":0.8052704247296216}},"7":{"bias":-0.07686252524300409,"weights":{"utilizationRate":-3.6329414188570177,"age":1.7812918829705766,"thirtyDaysLate":-18.076519284371795,"monthlyIncome":2.95899078766739,"openCreditLines":-1.1529504890802225,"ninetyDaysLate":-6.33310805723454,"realEstateLines":-3.2355569344233897,"sixtyDaysLate":-3.856399540413998,"numDependents":1.5378848897118162}},"8":{"bias":-2.0864294676520188,"weights":{"utilizationRate":3.7210316527228215,"age":-0.541263140884407,"thirtyDaysLate":6.528071414840819,"monthlyIncome":-2.2111775554626765,"openCreditLines":-1.6160735638081218,"ninetyDaysLate":5.493188299884212,"realEstateLines":1.0851449162701086,"sixtyDaysLate":3.037123909284891,"numDependents":1.285540844928857}},"9":{"bias":-1.8741476187897907,"weights":{"utilizationRate":2.1763082074194084,"age":-0.3360285987329223,"thirtyDaysLate":4.700360436215671,"monthlyIncome":-1.297007010340044,"openCreditLines":-1.192914200300777,"ninetyDaysLate":3.6674302452692262,"realEstateLines":0.7388040680065964,"sixtyDaysLate":2.1121213496188993,"numDependents":0.3976066112004954}}},{"0":{"bias":-1.529667033541613,"weights":{"0":-0.991228626493092,"1":-0.9812836178760929,"2":1.3161165480788741,"3":0.9442759702612962,"4":-3.834724963101058,"5":0.38817740531758915,"6":0.7981086995791374,"7":-1.6471785731097792,"8":1.1709605796169378,"9":0.6995678473014706}},"1":{"bias":-1.4433968061827764,"weights":{"0":-1.1720180064211994,"1":-0.8470133341487599,"2":1.0968409912086663,"3":1.0941468659272557,"4":-3.6827114124465536,"5":0.1379413890470071,"6":0.9204279458639236,"7":-1.7773508083144955,"8":1.232663495950226,"9":0.526452661886169}},"2":{"bias":-2.8755965258584983,"weights":{"0":0.7740627764079112,"1":0.9992819276191318,"2":-1.9489109095143675,"3":-3.847028588983022,"4":5.815739415197887,"5":-1.2080877754483133,"6":-2.426503639960218,"7":2.4110831276973386,"8":-2.7398641974009252,"9":-2.0708770403100663}},"3":{"bias":-2.401169809369912,"weights":{"0":-1.665457292774233,"1":-1.8627013243296289,"2":2.0838313149071075,"3":2.5365811988916516,"4":-5.06382410054448,"5":0.6503194713331065,"6":1.7282349152876797,"7":-3.8158215382214737,"8":2.41188714072043,"9":1.4302392670203778}},"4":{"bias":-1.6538885187387944,"weights":{"0":-1.2393624717553913,"1":-1.478252287124674,"2":2.2732120804950724,"3":0.9014811514604993,"4":-4.364458327372115,"5":0.22183545793818432,"6":0.730848089366707,"7":-1.3345836337089172,"8":1.072155302966823,"9":0.8890565204549762}},"5":{"bias":-3.3014703402287484,"weights":{"0":-0.6626385630961326,"1":-1.0419425198042271,"2":12.249948595176281,"3":2.215715760480075,"4":-2.4257212957054093,"5":0.37168119094170304,"6":0.8736154503103644,"7":-1.1308539508732005,"8":0.2962244570137137,"9":0.695342976057342}},"6":{"bias":-1.7420124672076165,"weights":{"0":-1.3206828884607782,"1":-1.1045549393371517,"2":1.2763290077729468,"3":1.5203082405974813,"4":-3.8381000125143325,"5":0.31064870028338865,"6":1.248208784365969,"7":-2.399685997518684,"8":1.455962196107333,"9":1.162684299848105}},"7":{"bias":-1.7922490312548882,"weights":{"0":-1.3762747017542758,"1":-1.3668292589960875,"2":1.629709935305889,"3":1.4805336384005878,"4":-3.9640934338152776,"5":0.2615120453265256,"6":1.1756046713677708,"7":-2.3114169158716833,"8":1.6639571188713072,"9":0.9245236821099152}},"8":{"bias":-1.4586713386484145,"weights":{"0":-1.2260148658990835,"1":-1.5560686519640732,"2":2.321979202759145,"3":0.6544232659448643,"4":-4.435126514085187,"5":0.38336951493376015,"6":0.7040650407080865,"7":-1.4204514102627017,"8":1.053653514525027,"9":0.60793376105162}},"9":{"bias":-1.1484807635235388,"weights":{"0":-0.6250829286837455,"1":-0.7742110283633623,"2":0.04665552934773311,"3":0.24583711476511508,"4":-2.4628700853712084,"5":-0.18970016627860137,"6":0.3699319907458854,"7":-1.4490177335705396,"8":0.43533428581362726,"9":0.050817006141301316}}},{"0":{"bias":-1.9077598025333542,"weights":{"0":-0.8168615623150474,"1":-0.7733864644469155,"2":0.2987067574770875,"3":-1.8608482700321531,"4":-1.0044657675755544,"5":-0.3382424554229438,"6":-1.1149476106469036,"7":-1.1860071244859451,"8":-0.6017833340404934,"9":-0.4585571348949171}},"1":{"bias":-1.9654369829022875,"weights":{"0":-1.0250612573418056,"1":-0.9898436515556618,"2":3.2245503161238926,"3":-1.407456922338879,"4":-1.2016856386601564,"5":-3.8824700669449403,"6":-0.9685733312947341,"7":-1.213454810983413,"8":-1.2828399517979505,"9":-0.8500538819113841}},"2":{"bias":-1.9126905875375253,"weights":{"0":-1.0988099557968762,"1":-0.9842748165963459,"2":0.18270328321620852,"3":-1.8266519177670124,"4":-0.7694527666170549,"5":-0.25210489985905365,"6":-1.2623252700748684,"7":-1.0184881691150987,"8":-0.6687411072004609,"9":-0.4785143918181532}},"3":{"bias":-1.9175363194125583,"weights":{"0":-0.7731605410458929,"1":-0.965372711943007,"2":0.39887716664956563,"3":-1.8881872107550621,"4":-0.6876255139262527,"5":-0.37710124360172914,"6":-0.8525758481115193,"7":-1.2582078646720567,"8":-0.8273890216826202,"9":-0.41961292754416685}},"4":{"bias":-1.953728140269714,"weights":{"0":-0.9314901530928524,"1":-0.8522007163164966,"2":1.6956901927974972,"3":-1.5082242280669313,"4":-0.6790761952596536,"5":-1.6589515790473328,"6":-0.9637779686208958,"7":-0.8865766774568388,"8":-0.834765303931033,"9":-0.7845869824678553}},"5":{"bias":-1.882026813018434,"weights":{"0":-0.8313485941726756,"1":-0.7424964064843024,"2":0.49695523183188145,"3":-1.6996324926666726,"4":-0.9847566494008828,"5":-0.4461319538317976,"6":-1.067459584770289,"7":-0.8876399453302487,"8":-0.8963497515525036,"9":-0.5881458072355237}},"6":{"bias":-1.9144896747344784,"weights":{"0":-0.7421221554274542,"1":-0.8883177253513708,"2":0.20015089940481104,"3":-1.9971278307841307,"4":-0.6157355006521116,"5":-0.3299797331646028,"6":-1.1328143083112536,"7":-1.2586629757219425,"8":-0.71384029082407,"9":-0.4005572556257355}},"7":{"bias":-1.8978141573853446,"weights":{"0":-0.917292163939932,"1":-0.7022928001009149,"2":0.4969026186786098,"3":-1.5280785932921401,"4":-0.9955226026619824,"5":-0.3960168823929867,"6":-1.1026023494739794,"7":-1.1200199862355382,"8":-0.9227179262398907,"9":-0.49193999158723506}},"8":{"bias":-1.889719105766193,"weights":{"0":-0.9527530555770319,"1":-0.8386596184694999,"2":0.5623152219132307,"3":-1.621292039847103,"4":-0.9388874021676661,"5":-0.4700587529232387,"6":-1.0625324703438774,"7":-0.9630220140373482,"8":-0.8258613702169024,"9":-0.48012296017958184}},"9":{"bias":-1.8937491812958693,"weights":{"0":-0.7102564950702754,"1":-0.873061285630946,"2":0.3277807734912519,"3":-1.7345178533956118,"4":-0.8513575515204252,"5":-0.31574935983548297,"6":-1.1463549853223856,"7":-1.0753077227121814,"8":-0.893118604922872,"9":-0.7384673622172493}}},{"defaulted":{"bias":0.7123191844783525,"weights":{"0":-2.1599856322477398,"1":-3.146821397142498,"2":-2.165358380735751,"3":-2.1728000439417046,"4":-2.558294595473072,"5":-2.181335399933816,"6":-2.146172250356639,"7":-2.189645637834324,"8":-2.198748975284755,"9":-2.1747332678345512}}}],"outputLookup":true,"inputLookup":true}